digraph Tree {
node [shape=box] ;
0 [label="OBP <= 0.367\ngini = 0.409\nsamples = 621\nvalue = [443, 178]"] ;
1 [label="OPS <= 0.873\ngini = 0.339\nsamples = 471\nvalue = [369, 102]"] ;
0 -> 1 [labeldistance=2.5, labelangle=45, headlabel="True"] ;
2 [label="OBP <= 0.333\ngini = 0.325\nsamples = 456\nvalue = [363, 93]"] ;
1 -> 2 ;
3 [label="gini = 0.249\nsamples = 220\nvalue = [188, 32]"] ;
2 -> 3 ;
4 [label="gini = 0.383\nsamples = 236\nvalue = [175, 61]"] ;
2 -> 4 ;
5 [label="BB% <= 7.75\ngini = 0.48\nsamples = 15\nvalue = [6, 9]"] ;
1 -> 5 ;
6 [label="gini = 0.219\nsamples = 8\nvalue = [1, 7]"] ;
5 -> 6 ;
7 [label="gini = 0.408\nsamples = 7\nvalue = [5, 2]"] ;
5 -> 7 ;
8 [label="OBP <= 0.396\ngini = 0.5\nsamples = 150\nvalue = [74, 76]"] ;
0 -> 8 [labeldistance=2.5, labelangle=-45, headlabel="False"] ;
9 [label="BB% <= 7.75\ngini = 0.496\nsamples = 125\nvalue = [68, 57]"] ;
8 -> 9 ;
10 [label="gini = 0.245\nsamples = 14\nvalue = [2, 12]"] ;
9 -> 10 ;
11 [label="gini = 0.482\nsamples = 111\nvalue = [66, 45]"] ;
9 -> 11 ;
12 [label="BB% <= 12.886\ngini = 0.365\nsamples = 25\nvalue = [6, 19]"] ;
8 -> 12 ;
13 [label="gini = 0.153\nsamples = 12\nvalue = [1, 11]"] ;
12 -> 13 ;
14 [label="gini = 0.473\nsamples = 13\nvalue = [5, 8]"] ;
12 -> 14 ;
}