digraph Tree {
node [shape=box] ;
0 [label="wRC+ <= 1.5\nentropy = 1.0\nsamples = 351\nvalue = [175, 176]"] ;
1 [label="AVG <= 0.5\nentropy = 0.984\nsamples = 273\nvalue = [157, 116]"] ;
0 -> 1 [labeldistance=2.5, labelangle=45, headlabel="True"] ;
2 [label="OPS <= 0.5\nentropy = 0.722\nsamples = 45\nvalue = [36, 9]"] ;
1 -> 2 ;
3 [label="entropy = 0.391\nsamples = 26\nvalue = [24, 2]"] ;
2 -> 3 ;
4 [label="entropy = 0.949\nsamples = 19\nvalue = [12, 7]"] ;
2 -> 4 ;
5 [label="K% <= 0.5\nentropy = 0.997\nsamples = 228\nvalue = [121, 107]"] ;
1 -> 5 ;
6 [label="entropy = 0.826\nsamples = 27\nvalue = [20, 7]"] ;
5 -> 6 ;
7 [label="entropy = 1.0\nsamples = 201\nvalue = [101, 100]"] ;
5 -> 7 ;
8 [label="BABIP <= 1.5\nentropy = 0.779\nsamples = 78\nvalue = [18, 60]"] ;
0 -> 8 [labeldistance=2.5, labelangle=-45, headlabel="False"] ;
9 [label="K% <= 1.5\nentropy = 0.859\nsamples = 46\nvalue = [13, 33]"] ;
8 -> 9 ;
10 [label="entropy = 0.893\nsamples = 42\nvalue = [13, 29]"] ;
9 -> 10 ;
11 [label="entropy = 0.0\nsamples = 4\nvalue = [0, 4]"] ;
9 -> 11 ;
12 [label="AVG <= 1.5\nentropy = 0.625\nsamples = 32\nvalue = [5, 27]"] ;
8 -> 12 ;
13 [label="entropy = 0.0\nsamples = 6\nvalue = [0, 6]"] ;
12 -> 13 ;
14 [label="entropy = 0.706\nsamples = 26\nvalue = [5, 21]"] ;
12 -> 14 ;
}